svm_type nu_svc
kernel_type rbf
gamma 1
nr_class 2
total_sv 30
rho 0.224059
label 1 2
nr_sv 15 15
SV
5.46388422736219 10:0.48 14:0.43666667 15:0.036666667 21:0.03 29:0.013333333 30:0.0033333333 
70.89734648250705 11:0.96 19:0.04 
70.89734648250705 8:0.0066666667 11:0.01 19:0.98333333 
70.89734648250705 10:0.40666667 11:0.59 16:0.0033333333 
4.048894078381717 11:0.45 14:0.0033333333 15:0.026666667 19:0.10666667 25:0.08 29:0.33 30:0.0033333333 
5.646362343426924 8:0.2 10:0.43666667 19:0.043333333 24:0.30666667 29:0.013333333 
30.22475580508535 15:0.036666667 17:0.066666667 19:0.70333333 26:0.19333333 
31.52046115857083 10:0.83333333 11:0.16333333 16:0.0033333333 
63.30523902872961 11:0.88333333 15:0.033333333 27:0.083333333 
5.578308257548455 17:0.24333333 19:0.61666667 26:0.026666667 27:0.056666667 30:0.056666667 
70.89734648250705 11:1 
28.24538896305 6:0.14666667 10:0.59 11:0.26333333 
2.449478809704425 12:0.37666667 14:0.013333333 15:0.033333333 19:0.15 21:0.42666667 
0.7605935344081428 2:0.033333333 17:0.13666667 19:0.03 27:0.07 28:0.73 
70.89734648250705 2:0.67 5:0.24333333 23:0.07 24:0.0033333333 27:0.01 30:0.0033333333 
-10.77139682618888 2:0.21 4:0.053333333 5:0.26 10:0.41 15:0.0066666667 19:0.0066666667 27:0.023333333 30:0.03 
-2.94738899090699 8:0.46333333 11:0.18666667 19:0.35 
-34.78402793221061 14:0.026666667 15:0.066666667 17:0.0033333333 19:0.90333333 
-70.89734648250705 10:0.18333333 11:0.81 16:0.0066666667 
-6.872656279029873 2:0.63 5:0.016666667 14:0.01 17:0.23 19:0.073333333 26:0.04 
-70.89734648250705 8:0.03 11:0.96333333 13:0.0066666667 
-2.938749770994922 3:0.44666667 5:0.0033333333 15:0.50666667 19:0.0033333333 21:0.026666667 30:0.013333333 
-35.81312415096657 6:0.02 10:0.98 
-14.95276748916799 10:0.48333333 11:0.096666667 23:0.05 26:0.32666667 30:0.043333333 
-70.89734648250705 11:1 
-17.37565470484953 11:0.23666667 19:0.65 26:0.02 30:0.093333333 
-70.89734648250705 6:0.076666667 10:0.31666667 11:0.60666667 
-9.843391459359442 2:0.023333333 10:0.41333333 19:0.40333333 23:0.09 26:0.013333333 28:0.0033333333 30:0.053333333 
-61.65566279357132 2:0.69666667 5:0.24 14:0.03 21:0.023333333 28:0.0033333333 30:0.0066666667 
-50.18589229152855 19:1 
